  -3.5804568e-01  -1.1522016e-01   2.5765285e-01  -5.3437372e-01  -6.8523625e-01  -6.5501433e-01   4.7758659e-01  -6.6387074e-01  -2.0125217e-01   9.1703354e-01  -1.2079462e-01  -1.2807944e-01   2.4266495e-01   1.6939466e-01   2.4082168e-01   3.2197813e-02   1.1807718e-01   1.9625092e-02  -2.9045846e-01  -1.5869199e-01   6.1112804e-02   5.8035454e-01   5.7058393e-01   4.7969023e-01   2.6841752e-01  -1.5099669e-01   7.9060052e-01  -1.5441690e-01   1.2444170e-01   4.2902431e-01   4.3756662e-02  -2.1810676e-01   9.4367960e-02  -1.5466372e-01   5.8940745e-02  -3.5248667e-01   8.2652905e-02  -7.7769930e-01   3.5072692e-01  -7.8386273e-01  -3.0482679e-01  -1.1317048e+00  -3.0795422e-01  -2.7488237e-01  -5.8579478e-01   1.0608182e-01   4.0061636e-01  -9.6902638e-02   3.1509588e-01  -3.8167939e-01   3.7070202e-01   2.3614112e-01   4.5761692e-01   2.6200298e-01  -2.4426241e-01   2.2132710e-01   1.2182964e-01   2.0157856e-02   5.2785251e-01   1.0590699e+00   7.9742957e-02   1.7980543e-02   5.2380925e-01  -7.6488809e-01   8.5154939e-01   4.2597892e-01  -1.3087534e-01  -3.2128570e-01  -5.3336151e-01  -4.4923491e-01  -3.1926315e-01  -8.9940674e-02  -2.5751725e-01  -1.6596973e-01  -8.2583202e-01  -5.0662885e-01   1.9708778e-01  -4.9591650e-01   2.3400132e-01  -7.4330479e-01  -6.2722548e-01   2.0426392e-02   4.1029051e-01   7.8784823e-01   4.7568048e-01  -2.0225207e-01   2.7617027e-01  -8.6347865e-02   4.1249033e-01   4.2980761e-01   4.8997262e-01  -3.3656758e-01  -1.6029795e-01   6.4529666e-01   4.7688685e-01   3.3112685e-01  -3.5708252e-01   3.1711501e-01   6.3571875e-01  -2.1564753e-01   1.3247322e-01  -4.4180748e-01  -3.1066036e-01  -9.3690424e-01   4.1246850e-01  -2.8472122e-01  -3.3430897e-01   6.2026208e-01  -4.2632109e-02  -2.3520287e-01   6.6589908e-02  -1.8725664e-01   1.0112229e-01   2.0664788e-01   3.4731491e-01  -5.9527473e-02  -5.3102158e-01  -1.5134771e-01   1.7421175e-01   4.2400778e-01   2.7890892e-01  -4.2774268e-01  -7.3301044e-02   1.3692883e-01   2.2692371e-01   2.6586252e-01  -4.1238787e-02  -6.8255806e-02   2.1679008e-01   5.0819022e-01   4.9317892e-01  -6.0039219e-02  -1.4473139e-01   1.0557767e+00  -2.4145157e-01   8.3723445e-01   2.3663945e-01  -2.3872472e-01  -5.5325884e-01  -3.1677629e-01   3.9454257e-01  -4.6858682e-01   1.1276616e-01   5.1443191e-01  -2.8728892e-02  -2.5932249e-01   7.7288233e-01  -2.9477834e-01   2.5216398e-01   3.9270885e-01   1.8039884e-01   5.1134811e-02   1.6237440e-01  -2.0299533e-01   4.3366508e-01  -3.6043329e-01   6.0840386e-02  -2.0503820e-01   2.3458417e-02  -2.4812198e-01   3.8156441e-01  -8.7974855e-01   7.1119635e-02   1.4811051e-01   4.7265525e-01   6.2305853e-02   8.3554606e-01   1.9778212e-01   2.8820737e-01  -1.0264323e-01  -3.9269209e-01   5.3149922e-01  -4.1282318e-01  -2.0810302e-01  -4.4226031e-02  -7.0067112e-01  -3.2290316e-01  -7.0158033e-01   8.1863669e-01   1.3153855e-01   1.3031606e-02   1.0062640e-01   1.6746409e-01   1.1181530e-01  -1.8008901e-01  -4.4438350e-01  -6.0282570e-02  -2.9322634e-01   2.7094002e-01  -3.9578643e-01  -1.2400083e-01   5.8685490e-02  -3.4502658e-01  -4.9808751e-02   2.8015795e-01   2.6469107e-01   2.4162963e-02   4.2168659e-01  -2.1014471e-02   3.6651087e-02   3.6044467e-01   3.5048909e-01   7.3362755e-01   6.7627731e-01   7.1612822e-01  -1.0779154e-01   2.5533432e-01  -3.7211354e-01  -1.4143793e-01  -3.2445559e-01   2.4659511e-01  -5.1721909e-01  -8.2158903e-03  -4.6747995e-01   1.1383948e-01   3.0393987e-01   4.8075749e-01   5.3745828e-01  -1.6482554e-01  -3.7814645e-02  -1.6168341e-01  -3.9631743e-02   2.4641354e-01  -1.0165903e-01  -2.4452288e-01  -7.6923325e-01  -2.1654458e-01   1.6162143e-03  -3.1752511e-01   8.5890879e-02  -4.1557440e-01   1.2195575e-01  -3.6983827e-01   4.8531498e-01   3.8103821e-01   8.9381795e-02   3.9314331e-01   2.7596108e-01  -7.0794020e-02   6.3595480e-01   5.5190478e-01   2.7145610e-01  -1.9966594e-01   1.2142137e-01  -1.6234970e-01  -2.5192260e-01   5.2411696e-01   1.1026862e-01   2.1425778e-03  -6.3484035e-02   4.8439497e-01  -3.7695700e-01   1.0165036e-01   1.3087880e-01  -2.3905616e-01  -6.6844656e-01  -1.1199812e-01  -2.7791684e-01  -5.9830068e-01   6.4271958e-02  -1.0808967e+00   3.2389824e-01  -1.9622942e-01   3.9927994e-02   4.4606325e-01  -1.2746046e-01  -3.2561300e-01  -1.0750012e-01   4.1152069e-01   7.3422276e-02   1.7622812e-02   1.8002721e-01   3.1051240e-01   1.0176483e+00  -2.8048153e-01   4.3280643e-01   5.0549189e-01  -4.2481516e-01   4.3860970e-01  -1.8321693e-01  -2.8840259e-01  -1.1000417e-01  -6.0459105e-02   9.2607170e-02  -5.6458135e-01   1.1709228e-01   1.6903050e-01  -4.1394649e-01  -1.6358344e-01  -5.0054152e-01  -2.5852645e-01  -8.8946514e-01  -3.1900842e-01  -7.5829416e-01   2.7346901e-01  -9.0883907e-01  -1.6388484e-01   4.1529962e-01   7.8587097e-01  -2.4306346e-01   1.0901476e+00  -1.7182899e-01   5.0120456e-01   4.3557799e-01   7.4520151e-01  -3.8534042e-01  -4.8772469e-01   3.4659426e-01   3.0124683e-01   2.4819392e-01   3.2046041e-01   1.3623734e+00  -3.7051530e-01  -2.1031984e-01   1.0832157e+00   9.6241502e-01   1.7842430e-01   4.6624693e-01  -1.7742839e-01   3.4146502e-01  -2.7648282e-01   5.7021500e-02  -2.2955566e-01   4.1588494e-02  -1.8899412e-01  -8.3855012e-01  -2.9075066e-01  -7.6422644e-01  -6.2679284e-01  -3.3046108e-01   2.1683381e-02  -4.9363390e-01  -5.4717933e-01   5.5095814e-01   5.9668925e-01   9.0523563e-01   3.3030886e-01   5.7241330e-01   4.1243700e-01   4.1020169e-01   1.3251242e-01  -5.7992131e-02   2.8918774e-01   7.8855188e-01   2.2776648e-01   9.1959492e-01   8.5305428e-02   3.1731611e-01   6.5165076e-01   5.8084226e-02   6.1109080e-01   5.5634213e-01  -3.1186015e-02  -1.9876741e-01  -1.2456759e-01  -1.0757064e-01   7.0032127e-01  -5.3277273e-01   8.8974212e-01   1.2274256e-01  -5.4195585e-01  -8.1875974e-01   5.0180909e-02  -5.5661945e-01  -4.1385875e-01  -5.0287611e-01  -2.3307358e-01  -8.8952606e-01  -1.6212560e-01  -5.4078720e-01  -4.5573401e-02  -4.8329148e-01   2.6753016e-01   3.9637289e-02   1.0733807e-01  -1.4904722e-01   5.1899155e-03  -6.2126242e-02  -3.8694354e-02  -2.6678424e-02   3.1175473e-02   8.5415133e-01  -3.3717252e-01   1.2177569e-02   3.6234302e-01  -3.2253953e-01   5.3640299e-01   4.9960864e-01   2.1956558e-01   5.6235804e-01  -7.4941263e-01   2.9659357e-01   4.0399221e-01   2.9190590e-02  -3.0210864e-01  -1.7687845e-01   6.5972874e-02  -5.6854090e-01   3.8379286e-01  -1.9149499e-01  -4.9115941e-01   1.1445551e-01   4.8633274e-01  -3.6916579e-01  -4.0023017e-01  -4.3630921e-01  -1.5692286e-01  -1.8873811e-01   4.5695349e-01   3.3771064e-01  -6.2483069e-01  -2.3041145e-02  -3.5814082e-01   6.3966717e-01   1.8478198e-02   2.4696965e-01   4.0139644e-02   8.7070652e-01  -3.0586455e-01   1.4305735e-01   3.5708471e-01   1.4958267e-01   3.5394974e-01   7.3860020e-01   2.5387281e-01   1.8675805e-01  -2.0441303e-02   2.0719166e-01   5.5646659e-02   2.2627953e-01   2.3339108e-01   2.4990037e-01   3.4883286e-02   3.0048732e-01   2.7625258e-01  -1.0214584e+00  -9.7201109e-02   4.9999581e-01  -3.9263631e-01  -2.2074252e-02  -1.5339191e-01  -1.8472651e-01  -5.1985626e-01   1.8227379e-01  -7.8268454e-03  -2.9431636e-01  -1.1468181e+00   2.3574728e-01  -1.0284766e-01   8.9409097e-02  -2.6510696e-01   2.0747286e-01  -4.1346912e-02   6.7892228e-01  -2.5903432e-03   4.3564860e-01   2.1578211e-01   6.8400670e-01  -2.9235256e-01   1.5866511e-01   1.4585963e-02  -4.2372299e-01   1.4813020e-01   3.8996608e-01   6.2080467e-01   5.5419391e-01  -4.7024431e-01   1.9333922e-01   5.5887124e-02  -3.5599444e-03   1.1395441e-01  -6.2854598e-01   4.4721439e-01  -3.9737323e-01  -3.7151344e-01  -4.6599355e-01  -5.2416405e-01  -1.2132357e-01  -2.8632582e-01   2.8870975e-01  -9.3163881e-01  -2.5284193e-01  -8.3999166e-02   8.1120624e-02  -7.5518272e-02   3.3246534e-01  -2.3697989e-01   4.1330628e-02  -4.0586683e-01  -8.9510360e-02  -3.5751684e-01   1.2429764e-01   4.3661290e-02   7.3370785e-01  -2.2599333e-01  -3.5929113e-01   2.8092437e-01   5.1205246e-02   8.3883564e-01  -4.6078110e-01   5.8256602e-02   8.4298024e-03  -1.5619153e-01  -2.2953911e-01   9.8266438e-02  -1.9072092e-01  -2.9254304e-01  -1.3512545e+00   1.0456326e-02  -4.8804026e-01  -9.5437240e-01   5.2180797e-01  -4.9458639e-01   1.6321695e-01   1.1740116e+00  -5.0899360e-01   5.4243879e-01   1.1066742e-01   1.4601833e-01   7.3158414e-01   1.5472741e-01   4.4597221e-01  -2.9249662e-01  -2.3505891e-01   7.9704879e-01   1.6866697e-01   3.8434799e-01   7.8711651e-02   1.9592642e-01  -3.0309474e-01   3.0417945e-01  -2.5959696e-01  -8.0050588e-01  -2.5781247e-01   2.4327314e-02   3.9775280e-01  -3.7517328e-01  -1.6633476e-01  -3.6557573e-01  -3.5071398e-01  -1.4445994e-01  -8.5356529e-01  -3.3708375e-01  -3.3806380e-01  -8.8665092e-01  -1.0350727e+00  -6.2517068e-01  -1.4223325e-01  -7.5100003e-02  -4.5252273e-01   3.9127299e-01  -3.1935470e-01   4.5144830e-01   3.1301891e-01   3.9771636e-01   3.4389457e-01   9.9028444e-01  -7.4836673e-01   1.6584633e-01   7.9145454e-01   5.8707815e-01   2.4647577e-01  -1.7064466e-01   5.3860530e-01  -8.0101398e-02   3.2941893e-02   2.4124720e-01   1.3039635e-01  -8.1178476e-01  -2.6628811e-01  -2.7788473e-02   3.4250158e-01  -1.7571872e-02  -4.1812047e-01  -3.1473317e-01   3.7786025e-01   2.5598906e-01  -5.7586682e-01   2.2903421e-01  -7.3567934e-01  -5.1414882e-01  -5.9432605e-01  -4.8926934e-01  -5.2187349e-01   3.7958789e-02  -2.8211323e-01   5.5423578e-01   8.2181387e-01   4.9920559e-01   1.6659112e-01  -4.4421940e-02   8.1785563e-01  -3.7079094e-01   6.1337209e-02   5.6893303e-01   4.0391263e-01   2.4674145e-01   2.6689528e-02   4.4782945e-02  -1.2256022e-01   2.5440875e-01   2.3216975e-01  -2.8317163e-01  -4.0081675e-01  -8.5361823e-01  -1.1764767e+00  -7.3215356e-01   1.4146043e+00   2.0025608e-01  -1.7619870e-01   2.2904927e-01   1.0674148e+00  -1.9369663e-01  -2.3646333e-01  -4.3264375e-01  -6.5361107e-01  -2.9146063e-01  -4.8431260e-02  -8.4254574e-02   1.8520440e-01  -7.9765687e-02   1.0220170e-01  -4.0016284e-02  -2.2213921e-01   3.3106495e-01   5.9179989e-01  -1.0246035e+00   1.2938770e-01  -1.1667888e-01   3.9929744e-01   9.1754023e-01   5.9641642e-01   7.6050901e-01   4.1116052e-02  -2.2844374e-02  -6.2924815e-01  -5.4207084e-01  -5.0027539e-01  -7.6389248e-01  -6.9297747e-01  -7.1392705e-01  -3.9331857e-01  -4.1323335e-01  -2.1785185e-01   3.5227335e-01   5.3807814e-01  -6.2442095e-02   3.1744514e-01  -6.9187181e-01  -3.0475102e-01   1.5884539e-01  -1.0783153e+00   5.5028178e-01   8.6250071e-02   5.1504979e-01   4.2621974e-01   4.9650906e-01  -2.9108910e-02  -6.3090039e-01   2.5726218e-01  -2.9335853e-01  -3.8694950e-01  -1.0857071e+00   1.9011718e-01  -5.1585865e-01  -9.7382280e-01   1.1915835e+00   1.0246375e+00   2.7071400e-01   4.1613708e-01   3.3725952e-01  -9.3285532e-03  -1.5533210e+00   1.0238510e-01   2.0100589e-01  -4.9168264e-01  -1.9591033e-01   7.3430623e-02   7.4601695e-01   7.4941663e-02   7.5653461e-01   1.7063826e-01   3.1390035e-01  -3.0196837e-01   2.3889818e-01   9.6079653e-01  -1.9424255e-01  -4.2488750e-01   5.0581864e-01   4.3256586e-01   3.3839801e-01   1.3095315e-01   6.4297925e-01   1.1206680e-01   9.0506198e-02   1.9459007e-01  -8.8062475e-02  -2.2555407e-01  -1.0627908e+00  -5.4549989e-01  -3.9104825e-01   1.2294783e-02   5.3925548e-01  -3.0588868e-01  -3.8836523e-01   2.2989241e-02  -1.7061607e-01  -2.2331943e-01  -3.2240408e-01  -1.7762341e-01   3.5077971e-01  -2.3476543e-01   7.6735569e-02   2.2771430e-02   2.1966809e-01  -3.9210213e-01   6.9463779e-01  -2.6483724e-01   5.0742804e-01  -7.2588902e-01   2.4152859e-01   2.0429356e-01   6.4907217e-01  -6.4922390e-01   8.0598899e-01  -2.6161383e-01  -1.7322633e-01  -2.1735247e-01  -2.1547727e-01   2.3125373e-01  -1.2345870e-01  -1.6538170e-01  -7.3972265e-01  -2.7181819e-01   4.6900705e-01  -3.0722107e-01   2.6313795e-01   1.1240847e-01   1.7435287e-01  -6.2761431e-01  -3.0305278e-01   2.9602743e-01  -2.6081361e-01   3.2098556e-01   5.0972478e-01   2.3003111e-01   4.5261551e-01  -3.4714079e-01   1.2896005e-01   4.4411004e-01   4.3055368e-01  -2.0587303e-01  -5.6619832e-03   1.9445467e-01  -2.3351759e-01  -1.9438807e-01   1.0602043e-01   2.8964519e-01  -4.7542491e-01   2.2133446e-02  -1.9077787e-01  -2.7623675e-01  -8.6340031e-02   2.8721927e-01   2.0929132e-01  -1.8366113e-01   5.5116530e-01   1.3794860e-01  -1.1585250e-02  -3.0307256e-01  -9.5814593e-03   7.7878403e-01   4.5171335e-01   5.5021703e-01   6.9514583e-02   3.6545655e-02   3.6456888e-01  -3.1865470e-01   6.4175702e-01  -8.9789835e-02   3.7245367e-01  -7.7065788e-02   4.0208386e-02  -3.7185342e-01   3.2058027e-03  -2.7938938e-01  -4.0673097e-02   3.2874220e-01   4.6713480e-01  -1.1899878e+00   6.5345006e-02  -2.2286412e-01   2.4310225e-01  -5.0671473e-01  -5.9383241e-01  -3.7292401e-02   7.0815112e-02  -9.3716773e-01   2.6860650e-01  -5.1223580e-01  -3.8873081e-01  -8.7202256e-02   9.6923739e-01   2.9296362e-01  -2.6347448e-01   5.1542395e-01  -5.5644468e-01  -6.1320136e-02   1.2761080e+00  -5.1450322e-01  -1.3816037e-01   2.1680606e-01   5.1391815e-01   1.6827135e-01   7.6355111e-02   2.3827079e-01   3.3009341e-01  -4.3235806e-01   2.7124859e-01   2.3273311e-02  -2.5855230e-01  -1.5962515e-01  -2.0470497e-01   2.7763793e-02   7.3944725e-01   2.2689466e-01   4.6191796e-01   2.8483480e-01  -6.6674209e-01  -6.8902273e-01   6.3272197e-01   5.9054782e-02  -4.5755226e-01   6.3922315e-01   2.8224688e-01  -9.9247193e-01  -6.9776057e-02  -1.3692927e-01   9.9717012e-01   1.1970079e+00   1.6733736e-01  -4.7488466e-01  -1.0524683e+00   5.6134835e-01  -1.3821236e-01  -3.0862467e-01   9.6808820e-01   2.6055305e-01  -3.8236532e-02  -2.7768909e-02  -2.2597295e-01   4.4034814e-02  -3.3769655e-01  -4.5358400e-01  -4.9822325e-01  -5.6576747e-01  -9.9437456e-01  -1.4469256e+00  -9.5771984e-01   3.2743531e-01   2.5967335e-01  -4.8129786e-01   2.1465781e-01   6.0002632e-03  -2.4350669e-01  -7.0982157e-02  -1.1418823e-02  -8.2847781e-01   9.2438836e-02   6.8815458e-01   2.1755184e-01   1.7957529e-01   6.0006171e-01   6.9131731e-01  -4.5327954e-03   5.8903769e-01   4.3938698e-01   1.2547008e+00  -6.9762649e-01   1.9500506e-01  -1.5582627e-01  -7.1935792e-02   6.0717576e-01   3.8239455e-01   7.3002332e-01   5.4067729e-01   1.0016021e+00  -2.9194067e-01  -2.0788639e-01   4.4477359e-01  -1.3532477e-01   5.6693847e-02  -1.7193098e-01  -6.9390963e-01   9.5416601e-02   2.0251520e-01   3.6324779e-01  -4.3261953e-01   1.4574965e-01   1.0657682e+00  -1.2387175e+00  -3.1765019e-01   3.9182886e-01  -9.2346813e-01  -5.3786196e-01   1.6383710e-01   1.0082295e+00   5.1286465e-01   8.0318061e-02  -1.4879041e-01  -2.4519687e-01  -3.3269951e-01  -9.4639692e-01  -2.3796845e-01  -9.2265224e-01  -2.9810216e-01  -4.3709451e-01  -4.7628544e-01   4.0734005e-02  -8.9943888e-02  -3.1033803e-02   6.6615190e-01   2.4845536e-01  -4.1588560e-01  -5.7998520e-01  -8.3710231e-01  -3.4776505e-01   9.4394158e-02  -6.6944960e-01  -4.0228161e-01   1.3353614e-01  -2.0570814e-01   4.2240179e-01  -1.5743323e-01  -6.8675932e-01   6.4343611e-01  -6.5280456e-01   9.2795376e-01   3.5057864e-01  -3.0827858e-01   4.4213266e-01   1.8083601e-01   2.9030891e-01   2.8150860e-01   4.0340217e-01   2.6838272e-01  -1.7526163e-01   4.3565066e-01  -6.7367055e-01   5.1726886e-02  -8.5195157e-01  -3.4873734e-01   3.3673719e-01  -7.7677018e-01   2.1858155e-01  -3.8906667e-02   3.5065944e-01  -6.7321562e-01   1.0135147e+00  -3.3775577e-01   2.5064305e-01  -1.4970138e-01  -3.4863175e-01  -4.1897769e-01   6.9387872e-03  -1.3376149e+00   7.7284506e-01   1.2470691e-02   5.2242606e-01  -3.8868353e-01  -1.5960948e-01   5.3223277e-01   5.9452266e-01  -2.5144144e-01   3.2154560e-01  -1.7302981e-01   9.4816245e-02   1.4314883e-01  -1.4211211e-01  -7.2495919e-01   4.8397154e-01  -1.9636475e-01   1.3794403e+00  -4.1293183e-01  -1.8623458e-01   5.2818704e-01  -1.1458603e-01   2.3387157e-01   1.0613506e+00  -2.5913118e-01   3.2645028e-01  -1.7161732e-01   9.5910530e-02   1.8978893e-01   6.8909456e-02  -7.2842827e-02   3.2554719e-01   6.4426912e-01  -4.8157108e-01  -9.1133572e-02  -5.4524503e-01   1.8184793e-01   3.3859002e-01   1.0396361e-01  -1.5282677e-01  -2.4353985e-02  -1.8282309e-01  -1.4087712e-01   5.6232381e-01  -3.4150638e-01   2.2457910e-01   1.2379893e-01  -1.8163308e-01   3.9084667e-01   4.8775597e-01  -7.0473525e-03  -6.7416062e-01   2.2640411e-01   1.9517072e-01  -4.6167985e-01  -1.2186842e-01  -3.8703694e-01  -8.7663721e-01   4.4456293e-01   2.3862514e-01   2.9141913e-01  -4.0678911e-01   4.1799154e-01  -2.6722533e-02  -2.9521029e-01   2.2584397e-01   7.5701412e-02  -2.5921020e-01   1.2898290e-01   2.6798825e-01  -1.1815943e-01  -3.2030929e-01   3.4284267e-02   1.9313937e-01   4.2459154e-01   4.5834993e-01  -9.9909587e-03  -1.0013025e+00   2.4569837e-02  -2.3591501e-01  -7.1653625e-01   8.2164633e-01   4.5237189e-01  -5.7159537e-01   6.9041297e-01   1.0837267e-01  -2.9807685e-01  -7.4990322e-02  -2.8707508e-01   5.4299335e-01  -2.6434320e-01   3.8336923e-01   5.2564840e-01  -1.0353740e+00  -2.6884570e-01   3.1192998e-01   7.5470155e-01  -4.0001614e-02   4.9415661e-01  -4.6303900e-01  -7.4558818e-01  -6.4242149e-02   5.9412777e-01  -4.0979088e-01   4.9318074e-01  -6.5340213e-01   6.5817179e-01  -4.0978695e-02   5.9345027e-02  -2.3817440e-01   3.5398111e-01   4.4631456e-01   2.9676849e-01   1.8541988e-01  -2.4322961e-01  -1.1640188e+00   2.3924699e-01   2.5017396e-01   4.3137906e-01  -3.3898788e-01   4.5877890e-01   2.2429268e-01   6.3766209e-03  -7.1124603e-02   8.3314114e-01   4.4912315e-01   1.0225100e+00   2.5193855e-01   1.8007627e-01  -4.1336450e-01  -1.8409506e-01  -1.1111315e-02   5.2151355e-01   2.0790642e-01   1.5439297e-02  -3.7615934e-01  -2.7066502e-01   1.6933256e-02  -3.1804435e-01  -4.7362853e-02  -2.5555830e-01  -5.1227457e-01   4.5301066e-01  -8.2518142e-01  -6.0462416e-01   1.4432788e-01   8.4107279e-01   5.0591300e-01  -6.1697624e-01   2.0884448e-01   1.0849853e-01  -1.1740675e+00   3.7709401e-01   1.1205831e-01  -3.2985765e-01  -3.5920014e-01   1.9488934e-01   1.0392358e+00  -2.4011598e-01  -1.9248994e-01   4.4013365e-01  -6.1885551e-01   7.0321095e-01   1.8187258e-01   1.3266781e-01  -2.2293189e-01  -6.7126585e-01  -4.3453359e-02  -6.1931413e-01   4.7983526e-03  -5.8443127e-01  -1.5134277e-02  -5.2790048e-01  -2.0091717e-01  -5.2447856e-01   1.5171640e-01  -4.2538718e-02  -5.9580435e-01  -1.2091069e-02  -3.5711329e-01  -7.9885580e-01   4.1066918e-02   2.7292851e-01   2.5673656e-02  -4.1451569e-01  -3.8968232e-01   2.9570196e-01  -6.1270899e-02   6.5082843e-01   7.1685229e-01  -1.0793512e+00  -1.3250607e-01   5.4720448e-02   9.3193745e-01   1.1458894e+00   3.8469151e-02  -4.3786119e-01   2.4624369e-01   1.0748189e-01   2.7930583e-01   4.6909624e-01  -3.9763227e-01   1.6231244e-01  -9.3907220e-02  -6.6903716e-02   2.9755388e-01   4.2840173e-02   3.0104267e-01   6.9822091e-01   1.3884371e-01  -1.7958378e-01  -1.7991104e-01   2.5366052e-01  -2.7896750e-01   3.9163249e-02  -7.7857035e-02  -5.7420148e-01  -1.3096278e-02   1.5492116e-03   4.3299234e-01  -3.4345878e-01  -7.5153926e-01   6.2369589e-01  -6.8934045e-02   6.0913386e-01   4.9109846e-01   2.5451352e-01  -5.0633260e-01   3.0164968e-02   8.2848158e-02   7.5191266e-01   3.9778203e-01   3.7547804e-01  -2.1000522e-01   1.5290321e+00  -2.9270315e-01  -4.7380714e-01   1.1981789e-01   4.2441910e-01  -1.9286576e-01   4.4438478e-01   1.7271745e-01   3.5175316e-01  -1.7740998e-01   3.8790143e-02   1.1750323e+00   7.2811218e-02   8.5065395e-01   3.0738321e-01   4.2127155e-02  -3.3768659e-01  -2.8555553e-02  -7.5708008e-01   2.4318046e-01   6.6645482e-01  -4.7495974e-01   2.1097189e-01  -1.0857505e+00   2.1246176e-01   4.2322332e-01   3.8066541e-01  -2.4479096e-02   7.9732563e-04  -7.6787693e-02   4.9265266e-03  -7.2134861e-02  -4.1859554e-01   5.4777862e-02  -4.8484480e-02   5.3520579e-01   1.0534584e-01   3.7256340e-01   7.9628508e-02   2.4444488e-01   1.5519149e-01   2.0781344e-01   2.1564565e-01  -3.7233359e-01  -2.4448404e-01  -2.8440142e-01   4.3260485e-01   3.1846068e-01  -1.9208547e-02  -1.4849966e-01   6.1639232e-01   6.2237568e-02  -3.1517675e-01   2.5591466e-01  -1.1874892e-01  -4.4958698e-01   1.5472343e-01  -5.3831004e-01   1.5396975e-01  -4.5204585e-01  -2.2114820e-01   1.8971274e-01  -3.6864542e-01   6.3242760e-01  -4.7911749e-02   4.7746320e-02  -2.6838880e-01   2.7461797e-01   3.2177167e-01  -3.7127723e-01  -1.5544048e-02   4.6227910e-01   1.3174339e-01   4.1941480e-01  -2.4724963e-01   3.8998489e-01   2.8615721e-01   5.3811467e-01   6.6580290e-01   4.9375535e-01  -1.0581043e+00   1.5879519e-01  -3.6194842e-02   1.6375943e-01   2.8497716e-01  -2.6602397e-02  -3.8915053e-01  -1.8222921e-01   2.9457866e-01   1.2924140e-01  -1.2016992e-01   2.3348735e-02  -2.9007241e-01   1.6783175e-01  -3.1556880e-01   8.3339094e-02  -3.0041362e-01   5.4865622e-01  -3.5379601e-01   1.8588038e-01   8.9178469e-01  -3.0070434e-01  -6.0057295e-01   4.0980414e-01   3.4750734e-01  -5.3602045e-02  -8.7143023e-02   3.4375409e-01   2.7220365e-01   7.0999663e-02   2.7517721e-01   1.8303662e-01  -8.4425580e-02   4.0959213e-01   3.5547088e-01  -4.2472096e-01  -3.4830151e-01  -2.2473132e-01  -6.2702293e-02  -3.0467195e-01   1.8978898e-01  -4.2637687e-01  -3.0648528e-04  -7.9138769e-01   3.8517390e-01   3.2130803e-01  -1.0121042e-01  -4.5071260e-02   2.2461175e-01   5.2593542e-01   7.0217231e-01   2.0565812e-01   1.0641461e-01  -2.7818043e-01  -8.8255739e-02   4.6881188e-01   9.6922360e-02  -1.7567278e-01   1.3937122e-01   3.1615744e-01   2.6581502e-01   3.6317504e-01  -2.0259176e-01   1.5215318e-01   3.0904319e-01  -4.9778542e-02   1.8385159e-01  -3.2813659e-01   2.7850638e-01  -2.6741069e-01   7.6953550e-02  -1.1356615e+00  -1.5647792e-01   1.9864861e-01  -7.6391460e-03  -5.2977847e-01  -3.0935701e-01  -2.0391013e-01  -6.0575281e-01   1.9047649e-01   7.5401659e-01  -1.6170370e-01  -2.0317153e-01  -2.0465316e-02  -2.2192918e-02   5.1816931e-01  -4.3917593e-01   5.1524355e-01  -2.4642911e-01  -2.5518082e-01   1.1640983e+00   5.0106153e-01   9.4202476e-01  -7.3614852e-01  -1.8966855e-02  -1.5542594e-03   7.6843953e-01   3.3845204e-01   6.9443471e-01   4.0183782e-03   4.6087757e-01  -8.7770388e-02   2.9933086e-01   8.5859268e-03  -8.1994927e-02  -5.7364542e-01  -2.8258056e-02  -6.9736957e-01  -5.3682220e-01  -5.3611761e-01  -6.6843325e-02  -7.9482418e-02   2.5864939e-01   3.4465614e-01  -4.1681487e-01  -1.7642960e-01  -4.2850867e-01   5.3819561e-01  -3.2683898e-01  -1.9841764e-01   8.4290901e-02   2.7707419e-01  -7.8491448e-01   7.7067019e-02   1.9947989e-01  -2.0651052e-01  -3.8664355e-01   2.3211590e-01  -3.5659218e-02  -4.7060655e-02  -2.7223946e-01   9.7893431e-01   5.4058771e-01   6.1815632e-02   1.1436647e-01   1.6526920e-01   4.0393081e-01   1.5977649e-01  -1.2540931e-01   1.5546663e-01   4.6674533e-01  -1.6144819e-01  -1.9160815e-01   5.9824971e-01  -9.3707945e-02   6.9335514e-01   8.1183067e-01  -7.4301345e-01   8.9449011e-01   3.8919281e-01   3.3424948e-02  -1.0918603e-01   3.8569218e-01   5.4532434e-01  -1.3005780e+00   3.3730923e-01  -2.4214516e-01  -5.6083449e-01  -8.1513222e-01  -4.5955642e-01  -3.5083827e-01   1.6596264e-01   2.1539343e-01   4.9913456e-01  -6.5342713e-03  -1.2646992e-01  -5.5641060e-01  -1.1256988e+00   2.8263580e-01   9.2420180e-02  -1.2027546e-01   3.9056376e-01   4.6367715e-01   4.4638041e-01  -8.9831519e-01   5.8247194e-01   8.4582495e-01   8.8653710e-02   2.5548937e-02  -5.9316156e-01   2.5544675e-02  -9.6688880e-02   9.6762394e-02  -1.3974057e-01   7.7246019e-01   1.1708828e+00   8.5344028e-01   7.5778705e-02  -3.5265904e-02  -9.1506522e-01  -1.3490904e-01   4.2064748e-01  -6.6573924e-04  -8.8794821e-01  -1.3214807e+00  -7.3281155e-01  -7.6919340e-01   1.8024368e-01   5.8470793e-01  -3.2781968e-02  -2.1064486e-01   3.0971331e-01  -3.3000252e-01  -3.6186303e-01   9.5153381e-02   3.2794376e-01   1.9555560e-01  -1.0407348e-01   7.7620704e-01   1.5291976e-01  -6.8330837e-02   7.0529382e-01  -2.9042030e-01   4.8443198e-01  -2.8209079e-01  -3.3025718e-01  -1.2672005e-01   1.8655417e-01  -6.0359007e-01  -7.8249376e-01   7.1039693e-01   8.5500447e-01   6.4382439e-01  -2.5780272e-01  -4.4329043e-01  -1.7499898e-01  -6.2004748e-01   5.2377796e-01  -2.7948945e-01  -6.4509538e-01  -1.6971517e-01  -7.5275342e-01   8.1618513e-02  -2.0954880e-02   4.1842392e-02   2.2758761e-01  -3.3007630e-02   1.6812390e-01  -6.7759086e-01   3.0826196e-02   1.3195459e-01  -1.4687432e-01   1.1121289e-01   9.8272437e-02  -4.8084840e-01  -5.7296061e-02   3.4643544e-01   4.9059235e-01   6.5634110e-01  -2.5024884e-02   1.7177865e-01  -1.9196623e-01  -2.5411079e-01   2.8590837e-01  -3.5596398e-01   1.1574515e-01   1.3080387e-01   1.0373318e-01   3.6246668e-02  -6.0683998e-01   1.6563425e-01  -7.2330811e-02   2.3031586e-01  -1.4053049e-01  -4.5537620e-01  -1.0452127e-01  -5.3275042e-01   4.3360264e-01   2.1778219e-01  -1.0901475e-01   6.0765362e-01   4.1216565e-01  -1.7433803e-01   2.0428517e-01  -5.0455395e-01   3.7219949e-01   2.1321817e-01   2.9941439e-01   2.2786138e-01  -6.0643021e-01   1.8722669e-01  -1.5948095e-01   1.3328014e-01   1.0828186e-01  -2.5047230e-01   4.0271736e-01   6.0722369e-02  -2.0732150e-01  -3.9035645e-01  -2.9441800e-01   5.7275560e-01   1.8701581e-01  -2.1394664e-02   1.7663997e-01  -3.7912497e-01  -3.3908041e-01   1.3531026e-01   2.5163553e-01  -4.2458928e-02  -2.2850795e-01  -9.9784854e-01   3.0664635e-01   8.6308003e-02   3.0083274e-01  -2.4397737e-01  -1.3583342e-01   5.1512369e-01  -2.6191255e-01   1.7491173e-01   2.9980821e-01   2.5875328e-01  -7.4846946e-01   3.9204452e-01   2.1356793e-01  -1.6980273e-01   4.8761952e-02  -6.8384536e-02  -3.0924736e-01   1.9248133e-02  -1.1286834e-01   5.2614692e-01   1.6391700e-01   1.4060031e-02   9.7117985e-02   6.0599365e-02  -5.4644119e-02  -3.2391483e-01   3.1527590e-01  -5.9719748e-02   3.1480679e-01  -3.3404329e-01  -4.6838133e-02   2.0823664e-01   1.2188806e-01   2.9945950e-01   5.7855332e-01  -7.3047361e-01   1.7243362e-01  -2.0410879e-02   1.9758526e-01   1.7396862e-01   3.1333157e-01   3.6397937e-01   5.1061271e-01   6.2001155e-01   1.1151897e-01  -6.1326506e-01  -2.1399745e-01  -4.5854025e-01   1.5572727e-01   6.0297309e-01  -4.3000505e-02  -6.1065340e-01  -5.3970468e-01  -4.0862807e-01   5.6134151e-01   7.3175690e-01   4.7666665e-01  -4.7905462e-01  -1.7933426e-01   1.4776526e-01  -2.7918725e-01   3.7381596e-02   2.9633718e-01   4.6319982e-01   3.8688423e-01  -4.7294899e-02   1.4518796e-01  -2.1856042e-01   1.7170925e-01   2.4298130e-01   5.2456739e-01  -5.6589507e-01  -4.2691663e-01  -3.3640713e-01  -4.7978072e-02   3.6797057e-01  -5.9741479e-01  -4.6480628e-01   9.7701514e-01  -3.8100142e-01   8.6801040e-01  -6.0707239e-01  -5.0275442e-01  -3.6760513e-01   2.9976817e-01   1.0450507e-01   2.9366295e-01  -4.8550210e-01   1.3278718e-01  -7.4653489e-01   9.4905808e-01   7.7263086e-01   4.1427330e-01   3.1910631e-01   2.8359996e-01   4.0009925e-01  -5.6236918e-01   5.2678667e-01  -5.1136820e-02   4.9249162e-01   3.3105008e-01   5.8586767e-01  -7.2407229e-02   3.4903226e-01  -5.2771591e-01   5.2703018e-01   1.8485127e-01  -1.4667682e-01  -5.6452653e-01  -1.2379142e-01  -1.9427284e-01  -2.5575837e-01  -1.7428093e-01   6.5775222e-01   6.2207521e-01  -1.1413088e-02   7.8814584e-01  -1.1232181e+00  -1.1455462e+00  -5.6050893e-01   1.4624057e-01   9.1367005e-01   6.0898262e-01  -4.0358611e-01  -3.9430640e-01  -1.4170151e-01   1.1445256e+00   8.2189548e-01   3.2227779e-01   3.2171494e-01   6.1137052e-02   2.0084913e-01   3.0055162e-01   9.3525479e-02  -1.1851240e-02   8.4209213e-01   8.2375116e-01   3.2285170e-01   3.0152500e-02  -4.0119292e-01  -8.1666929e-02  -2.2704417e-01   1.1358163e-01  -2.1126752e-01  -4.2162720e-01  -7.0725665e-01  -2.8793708e-01  -2.0006252e-01   4.1773883e-01   7.4852709e-01  -1.5509460e-01   5.4583497e-01   1.1265606e+00  -1.1174038e-01  -5.5781076e-01  -2.8750483e-01   7.5007601e-03  -4.2217322e-01   2.5019555e-01   7.9704227e-01  -4.4247081e-01   6.1858117e-01   3.7847153e-02   4.1835482e-01   4.8606652e-01   4.8862661e-01   2.0739321e-01  -2.7242379e-01   5.1990866e-01   1.4115177e-01  -2.8178251e-01   9.2193650e-03   8.0373306e-01   3.7979189e-01   3.5968361e-01  -3.6067992e-01  -1.6294655e-01  -1.3298754e-01   5.2288503e-02  -6.3636422e-01  -6.1821360e-03   1.2702652e-01  -4.9884906e-01  -7.3958078e-01  -5.7610930e+00
