  -3.0128509e-01  -1.0295419e-01   1.9514064e-01  -9.3239952e-01  -1.8965258e+00  -1.2661556e+00   1.0747601e+00  -1.7647119e+00  -1.0763877e+00   1.8317908e+00  -1.5748453e-01   3.0538579e-01   1.0925698e-01   3.8470094e-01   3.2570783e-01   2.8628622e-01   5.9869067e-01   7.4519887e-01  -4.4901862e-01  -2.9633258e-01   5.6714443e-01   1.4268836e+00   1.5151252e+00   1.5842084e+00   1.0330575e+00  -4.7724017e-01   1.6568151e+00  -1.4875125e-01   8.5495803e-01   1.2716749e+00   9.6004321e-01  -2.4435650e-01   5.5123078e-01  -4.9183129e-01   4.3829723e-01  -5.7310289e-01  -6.6618196e-02  -1.9086094e+00   8.2878313e-02  -1.2765889e+00  -8.2228067e-01  -2.7985472e+00  -9.3542018e-01  -1.1143576e+00  -1.3733283e+00   3.5635911e-01   1.6236553e+00  -3.8271809e-01   5.9534288e-01  -7.2085451e-01   7.0159231e-01   8.3401644e-01   8.8298848e-01   4.1972913e-01  -1.1863663e-01   2.8981332e-01   5.7789525e-01  -3.3224326e-01   1.2595989e+00   1.9862921e+00   3.6467295e-01   2.0110750e-01   8.9094409e-01  -1.0629332e+00   2.3653763e+00   6.8876833e-01   5.4998502e-01  -6.4442370e-01  -3.4084276e-01  -1.1350071e+00  -2.6576481e-01  -1.8526976e-01  -7.4709590e-01  -4.3606923e-01  -1.8039302e+00  -9.7973050e-01   3.1004960e-01  -1.4713384e+00   3.4914116e-01  -1.9503354e+00  -1.3113120e+00   3.5306982e-01   1.0181035e+00   1.0696593e+00   1.5856044e+00  -9.2198424e-01   1.1470106e+00  -6.2475622e-02   6.6747286e-01   1.3791774e+00   5.8443070e-01  -7.7146276e-01  -6.9140697e-01   1.0164135e+00   7.1073737e-01   9.3688182e-01  -2.5365099e-01   6.5810112e-01   1.4901649e+00   4.5094600e-02   1.7017336e-01  -5.9158601e-01  -5.2661778e-01  -1.7270416e+00   1.0378330e+00  -9.2218727e-01  -3.4518909e-01   1.1327108e+00  -9.0266813e-01  -6.0135529e-01   1.1654278e-01  -1.3842411e-01  -7.1078458e-01   5.1518465e-01   4.1527861e-01  -2.1283917e-01  -1.1973224e+00   2.2913255e-01   9.2930442e-02   1.4041982e+00   2.8028698e-01  -1.0377498e+00   3.2544700e-01   5.0017784e-01   6.8480675e-01   2.5864713e-01  -9.0569964e-02  -2.1010393e-01   1.0850952e+00   7.2068844e-01   1.3469637e+00  -3.5075451e-02   1.4138703e-02   2.2346291e+00   3.1219507e-01   2.2768889e+00   8.8588159e-01  -7.7195131e-01  -8.5486648e-01  -4.2053054e-01   8.4725417e-01  -1.0371061e+00   8.5807280e-02   1.5588152e+00  -1.9533433e-01  -2.4997745e-03   1.7077375e+00  -3.7304455e-01   5.2883229e-01   6.9406314e-01   6.8549371e-01   9.1091348e-02   4.9961554e-01  -8.2049932e-01   7.4844369e-01  -4.5962478e-01   2.7104852e-01  -3.7350143e-01  -6.3379788e-02  -3.0263326e-01   3.9822717e-01  -1.8141362e+00   7.0194480e-01  -1.7841511e-01   1.3047924e+00   3.4318468e-01   1.2634603e+00   5.6444543e-01   6.1996471e-01   3.3978529e-01  -1.0459851e+00   9.0957448e-01  -6.2353482e-01  -3.7003326e-01  -9.5403676e-01  -1.4717381e+00  -5.2378228e-01  -1.8077777e+00   1.2061839e+00   3.9641470e-01   4.7580461e-01   3.4750565e-01   3.3552320e-01   2.2516943e-01  -4.2847401e-01  -8.7042126e-01  -5.4616496e-01  -4.3610774e-01   5.7653399e-01  -8.9829594e-01  -7.1953009e-01  -4.0504459e-01  -4.5771629e-01  -6.9698106e-01   5.8928486e-01   5.9878741e-01   4.1044823e-01   5.6067335e-01   1.9661099e-01   2.7678679e-01   4.9761053e-01   1.4124656e+00   1.3946924e+00   1.7373642e+00   2.1062490e+00   2.6672664e-01   4.6765751e-01  -6.6605703e-01  -1.9350533e-01  -2.0598292e-02   2.3689900e-01  -8.9052785e-01   9.0965235e-02  -7.6846046e-01   5.5746539e-03   9.8127602e-01   9.3116398e-01   1.0601900e+00   1.8561599e-02  -4.4940435e-01  -4.9267454e-01   4.8497999e-01   5.1996617e-01  -2.7692695e-01   6.6858194e-02  -1.2838836e+00  -1.1297745e+00  -1.3891680e-01  -4.7375196e-01  -1.6140443e-01  -9.8405688e-01  -2.4546094e-01  -8.9271369e-01   3.4896843e-01   6.9567340e-01   4.0201311e-01   8.6414749e-01   1.1268503e+00   4.9673720e-01   1.4437451e+00   7.3007732e-01   1.0569793e+00  -2.6222223e-01   1.4961422e-02   1.0054360e-01  -3.2074346e-01   6.3867905e-01   5.3400115e-01   7.0650624e-01   3.1842015e-01   1.1315545e+00  -3.9166852e-01   2.5733591e-01   2.2871279e-01  -4.2222898e-01  -1.6713851e+00  -3.3529156e-01  -1.0655905e+00  -9.7287828e-01  -1.6338250e-01  -2.0769727e+00   5.4504800e-01  -8.2915084e-01  -1.0538536e-01   1.0339254e+00  -3.8023364e-01  -5.6028993e-01  -2.7617475e-01   1.0854864e+00   1.6293411e-01   3.5154158e-01   5.6596968e-01   6.8052907e-01   2.1709446e+00  -4.1465638e-01   8.1713365e-01   8.7455516e-01   3.7955138e-02  -1.8049840e-01  -7.7232522e-01  -2.5186074e-01  -7.0641371e-01   4.7730054e-01   3.9646928e-02  -1.4005622e+00   1.7253575e-01   2.5377803e-02  -2.0108313e-01  -6.4518561e-01  -1.0473775e+00  -8.1973158e-01  -1.9994595e+00  -9.5382279e-01  -1.4569645e+00   3.1603152e-01  -2.0914003e+00  -7.0415323e-01   9.5130360e-01   1.5578613e+00   2.3898708e-01   2.3723318e+00  -4.1843945e-01   7.9009384e-01   1.0626262e+00   1.1433091e+00  -7.5441263e-01  -1.0283084e+00   8.0366766e-01   5.0626016e-01   7.3144024e-01   6.2212669e-01   2.6208068e+00   2.6496206e-01  -7.7151089e-01   2.4917563e+00   1.9252696e+00   1.0748788e+00   1.1482481e+00   1.5254724e-01   1.0707742e+00  -3.0741805e-01   4.8947620e-01  -5.5165592e-01   3.5932068e-01  -2.1287749e-01  -1.7661912e+00  -1.2789852e+00  -1.6766144e+00  -2.0529613e+00  -7.8417965e-01  -1.0084260e+00  -1.0796074e+00  -1.4397433e+00   1.2087841e+00   1.2088919e+00   1.9870591e+00   5.8283616e-01   7.6565892e-01   1.5459676e+00   8.0176493e-01  -3.7507986e-01   2.3434032e-01   1.2973887e+00   1.4213794e+00   1.0393646e+00   1.9812732e+00   2.6240168e-01   1.1104705e+00   1.3331287e+00   1.2114950e+00   1.5446662e+00   1.0494508e+00   4.4494558e-01   1.6501636e-01   4.2221574e-01   1.2540027e-01   8.5043068e-01   9.5090393e-02   1.5492273e+00   1.0020308e+00  -1.4687329e+00  -1.8513410e+00  -8.0648977e-01  -9.8079092e-01  -9.3411820e-01  -8.1883415e-01  -1.0128114e+00  -1.3353655e+00  -1.6414661e+00  -1.3619521e+00  -6.2517053e-01  -7.1198801e-01  -1.8693956e-01  -4.6439339e-03  -4.5017631e-01  -5.0030580e-01  -4.5992605e-01  -6.3568453e-01   6.9257872e-01   1.7457170e-01   4.6627297e-01   1.6658260e+00  -2.8627268e-01   5.9153706e-01   8.7950513e-01  -4.3594453e-01   1.1184246e+00   1.1043445e+00   9.3348173e-01   9.6404091e-01  -1.0221841e+00   6.5319759e-01   1.0464739e+00  -1.1879437e-01  -7.5336730e-01   8.6322054e-02  -3.4444722e-02  -9.0467452e-01   4.8028370e-01  -3.2731758e-01  -6.4736247e-01   2.0841287e-01   1.0665066e+00  -2.7545126e-01  -9.6236764e-01  -1.0074463e+00  -7.5844642e-01  -1.2189690e-01   7.6950167e-01   2.2602531e-01  -1.1800350e+00  -1.1776281e+00  -6.3193450e-01   7.6162488e-01   5.3824290e-01   5.7255909e-01   1.0351970e+00   1.6274131e+00  -4.4639742e-01   6.8691084e-01   1.2656038e+00   6.7614432e-01   9.8707949e-01   1.1427858e+00   6.0015947e-01   3.4282375e-01   2.8251584e-01   3.0235779e-01  -1.7995768e-01   1.0890317e+00   7.1284590e-01   1.0745710e+00   6.4862784e-02   1.2934533e-01   3.1629668e-01  -1.6645593e+00   9.8975080e-02   9.3449578e-01  -1.3131725e-01   9.4830219e-02   1.7457922e-01  -5.4995504e-01  -9.5440466e-01  -2.5434922e-01  -6.1039859e-01  -7.0216204e-01  -2.4210810e+00  -2.5517174e-01  -7.0201739e-01  -3.3483091e-01   4.6515842e-01   2.3875907e-01   6.3378298e-01   1.1680740e+00  -3.3090133e-01   1.2504894e+00   4.6248670e-01   1.8007489e+00  -7.1830197e-01  -2.5691648e-01   2.0355523e-01  -7.3566376e-01   7.3636807e-01   6.6420806e-01   1.0513458e+00   1.3443349e+00  -1.9689013e-01  -3.0496976e-02   1.9218291e-01  -4.3324649e-01   2.7941597e-01  -1.2082847e+00   3.2198802e-01  -9.9699477e-01  -4.0920517e-01  -1.0406455e+00  -7.8961580e-01  -3.4426007e-01  -6.6698061e-01   1.3043996e-01  -1.7717431e+00  -7.5199919e-01  -5.3106997e-01   3.9051825e-02  -4.3155477e-01   6.2708130e-01  -3.6571389e-01   6.6544079e-02  -4.7430385e-01  -4.9770928e-01   1.6108539e-01   5.2003873e-01   4.2538965e-01   1.2591254e+00  -3.8351410e-01  -5.5335715e-01   8.0929510e-01   3.4749912e-01   1.5809888e+00  -9.1240981e-01   4.9722356e-01   3.2753311e-02   2.3124803e-01  -6.0469741e-01  -2.8120396e-01  -5.2583802e-01  -4.3265432e-01  -3.2161603e+00  -5.1447433e-01  -1.4728491e+00  -1.5595287e+00  -8.3419892e-02  -1.7237695e-01   6.2103705e-01   2.2361157e+00  -5.5468415e-01   7.7749088e-01   2.4463112e-01   8.8719922e-01   1.3124697e+00   7.8239663e-01   9.6625668e-01  -3.2431072e-01  -4.0064868e-01   1.5527107e+00   3.0456224e-01   1.3590444e+00   4.6158658e-01  -2.2561377e-02   2.3519548e-01   3.8142507e-01  -4.6301211e-01  -1.3252863e+00  -1.5703509e-01  -7.1667467e-02   2.0579639e-01  -6.3676861e-01   3.7442767e-02  -1.6408656e+00  -4.1605255e-01  -8.2008391e-01  -1.8702412e+00  -9.6867210e-01  -1.2463394e+00  -1.4309659e+00  -2.2971489e+00  -1.5677087e+00  -3.4441140e-01  -1.9480754e-01  -3.0194921e-01   9.6122365e-01  -7.4474254e-01   8.7163907e-01   3.9473844e-01   6.8019092e-01   4.3037096e-01   1.7770165e+00  -1.2857532e+00   6.2965821e-01   1.1901262e+00   1.1303627e+00   1.4507706e+00  -5.1196301e-01   5.7788740e-01  -4.8905912e-02   1.5688533e-01   1.1488953e-01   3.1889071e-01  -1.7217443e+00  -1.0952283e+00  -2.5899763e-02   6.3452268e-01   1.7218826e-01  -9.6029656e-01   3.5024231e-01   7.8206725e-01   3.5543838e-02  -9.5240463e-01   2.0688163e-01  -1.4954476e+00  -1.4082115e+00  -1.7752015e+00  -1.1057017e+00  -1.8205047e+00  -3.0743804e-01  -6.5364126e-01   1.0711469e+00   1.0149836e+00   9.6275553e-01   5.9662879e-01   8.9478578e-02   1.1814459e+00  -2.8565202e-01   6.7196695e-02   6.6660119e-01   6.5670061e-01   9.1919300e-01   3.6224230e-01  -2.9672309e-02  -3.4569184e-01   8.7994588e-01  -2.0632189e-01  -1.9677661e-01  -4.1034690e-01  -1.5492982e+00  -1.9091432e+00  -2.0358344e+00   2.3477021e+00   9.3231550e-01  -3.4696886e-01   8.5606370e-01   2.5631366e+00  -6.2446178e-01  -8.6795494e-01  -5.0117584e-01  -1.5840447e+00  -8.0269507e-01  -8.9754604e-01   3.5222934e-01  -5.2793181e-01   1.1275277e-01  -9.8904328e-02  -4.6741647e-01  -5.6641614e-01   2.9756902e-01   1.2109783e+00  -2.4003561e+00   4.7362505e-01   3.2102170e-01   1.0048408e+00   1.9010346e+00   1.4248746e+00   1.3093427e+00  -2.5502444e-01   3.1885143e-01  -1.0472662e+00  -1.5205920e+00  -1.2252215e+00  -1.8797415e+00  -1.1777852e+00  -1.4066320e+00  -3.8057315e-01  -9.4874470e-01   1.6248788e-01   3.1300007e-01   5.5580451e-01  -2.7000719e-01   9.6652794e-01  -1.4045034e+00  -5.5561719e-01  -2.6467420e-01  -2.1219237e+00   1.0732520e+00   1.8148601e-01   1.4075442e+00   5.2648539e-01   1.2590933e+00  -2.5999343e-01  -1.0176297e+00   2.7598817e-01  -6.5334247e-01  -4.3448498e-01  -2.4688848e+00  -2.5447326e-01  -9.6182874e-01  -2.3604461e+00   1.7553127e+00   2.3804034e+00   1.0597603e+00   7.6609955e-01   1.1932216e+00  -6.8206573e-01  -2.3478914e+00   7.4119369e-02   6.2261432e-01  -6.2738071e-01  -2.0218429e-01   1.2197936e-01   5.0198682e-01   4.5140582e-01   1.0920056e+00   1.0436601e-02   7.4640457e-01  -7.3500875e-01   9.9327130e-01   1.5187739e+00  -1.5254547e-02  -1.1590337e+00   1.5387345e+00   6.2953089e-01   9.5191658e-01   6.7327920e-01   1.2860036e+00   3.0111357e-01   5.0281992e-01  -3.3582750e-01  -1.1107814e+00   7.6422509e-02  -2.1478012e+00  -1.2514063e+00  -1.7261264e+00  -1.3084189e-01   8.5340809e-01   1.6783155e-01   4.6294574e-03   2.7752078e-01   4.1927907e-01   1.6399092e-02  -3.1903467e-01  -1.8783146e-01   5.9824711e-01   1.0681480e-01  -2.1487256e-01  -1.2017356e-01   7.4166153e-01  -1.2368622e+00   9.8082802e-01  -1.7932669e-01   1.1479336e+00  -9.5758161e-01   8.0224900e-01   9.6805702e-01   1.3454443e+00  -8.9851381e-01   1.6012880e+00  -8.9829062e-01  -9.1856593e-01  -5.3145781e-02  -6.5695825e-02   4.1339203e-01  -1.8747971e-01  -3.7580892e-01  -1.4995946e+00  -1.4089812e+00   9.5144218e-01  -8.1721890e-01   6.1417199e-01   6.6863535e-02   4.4730492e-01  -1.4562671e+00  -1.0490269e-01   3.2447334e-01  -5.7725406e-01   1.2729366e+00   1.0786216e+00   9.5274871e-01   1.7992704e-02  -1.0267032e+00   4.8967074e-01   6.4317913e-01   7.8511418e-01  -6.0774485e-01   4.5345493e-01   3.9730506e-01  -6.7471908e-01  -1.8775980e-01   8.9338063e-02   3.9047985e-01  -4.7197457e-01  -3.1258723e-02  -5.5581297e-02  -5.6636738e-01   3.7977659e-04   5.2080838e-01   3.8300122e-01  -2.1714860e-01   1.6621680e+00  -2.7207591e-01  -1.4270803e-02  -1.1758875e-01  -3.4628160e-01   1.7633657e+00   1.2059732e+00   8.3064304e-01   2.6879309e-01  -7.4763256e-02   6.4344681e-01  -5.1148214e-01   9.6007858e-01  -2.1826331e-01   2.7987924e-01  -5.5828523e-02  -1.5432682e-01  -5.0989446e-01  -8.0138834e-02  -6.7628031e-01  -1.0878902e-01   1.0853812e+00   7.5016949e-01  -2.1808340e+00   1.4206376e-01  -6.5101772e-01   8.9011359e-02  -1.3335830e+00  -9.7604620e-01  -5.7068416e-01  -8.2028664e-01  -2.0018199e+00   1.3142278e-01  -9.6709999e-01  -5.0286628e-01  -4.5627054e-01   2.5511471e+00   7.0064484e-01  -7.3857599e-01   1.2218343e+00  -9.4462635e-01   2.5861945e-01   1.8623957e+00  -1.1820126e+00  -8.7269091e-01   3.7702233e-02   1.5039473e+00   3.8756756e-01  -2.6169292e-01   3.4071870e-01   5.2138861e-01  -1.2746014e+00   6.0101356e-01   5.4028489e-01  -4.8973809e-01  -6.4351499e-02  -4.3115880e-01   9.2797158e-01   1.6595978e+00   3.6027106e-01   1.0869831e+00   1.2510565e+00  -1.1177576e+00  -7.9060823e-01   1.0664790e+00   9.3717621e-02  -8.9386700e-01   1.1326042e+00   1.6495780e-01  -1.7710481e+00  -7.1192914e-01  -3.0778849e-01   1.5120862e+00   2.1334629e+00   2.5083533e-01  -6.4113831e-01  -1.9021056e+00   6.5678097e-01  -8.4174906e-01  -3.5076627e-01   9.6751743e-01   2.1433472e-01  -4.2975983e-01  -3.6688268e-02  -6.5487070e-01  -1.8222126e-01  -4.2851503e-01  -1.0369260e+00  -8.5496753e-01  -1.4970800e+00  -2.4032960e+00  -2.3523676e+00  -2.4573717e+00   7.5307332e-01  -2.2009963e-01  -5.2085765e-01   2.1342332e-01   2.9151212e-01  -4.9260932e-01  -2.6656754e-01   7.2307841e-01  -2.0190813e+00   5.1113414e-01  -2.0661435e-01   1.1907178e+00   1.5626920e-01   7.2219078e-01   1.3643449e+00  -2.4121382e-01   7.8376062e-01   6.1874341e-01   3.1231665e+00  -8.8631493e-01   7.7327306e-01   2.7156393e-01  -1.6278622e-02   9.0164618e-01   9.7859754e-01   9.5143915e-01   1.1208017e+00   2.2866921e+00  -5.7592696e-01   4.5821334e-02   6.1729830e-01   3.1299047e-01   2.7106577e-01  -5.5035708e-01  -6.5783366e-01   2.3381673e-01   1.1270466e+00   2.3644639e-01  -1.3166824e+00  -2.5555996e-01   1.8152802e+00  -1.7864205e+00  -7.1224549e-01   3.4080774e-01  -1.4688781e+00  -1.3305243e+00   1.7649256e-01   1.3551554e+00   8.4267353e-01  -3.9940554e-01  -6.5313032e-01  -1.5222031e+00  -1.1009699e+00  -2.2232577e+00  -9.1887267e-01  -1.0453641e+00  -3.2819054e-01  -1.0998861e+00  -1.1345805e+00  -5.1232128e-01  -2.8315470e-01   9.3351839e-02   1.0390395e+00   5.3618415e-01  -1.1597626e+00  -7.7452582e-01  -1.7476179e+00  -3.0137251e-01  -3.0287829e-02  -9.8936864e-01  -1.1521563e+00  -1.1324626e-01   3.8160060e-03   5.3851048e-01  -7.3850195e-01  -1.6135726e+00   8.5074398e-01  -1.0822415e+00   2.0030359e+00   7.5311295e-01  -5.4448203e-01   9.0194902e-01  -2.9513926e-01   4.8127427e-01   9.5444767e-01   4.1959709e-01   3.1399930e-02  -2.4547193e-01   2.4259925e-01  -1.6120028e+00  -1.4243720e-01  -1.0764904e+00  -1.1853661e+00   5.1986038e-01  -1.3241318e+00   2.0215356e-01   2.7526753e-01   1.0062872e+00  -1.4789836e+00   2.1227066e+00  -5.4678212e-01  -4.6348490e-02  -1.9666112e-02  -1.4154296e-01  -8.0520809e-01  -3.2576211e-01  -2.6713887e+00   8.4168533e-01   6.8385244e-01   5.3067516e-01  -6.6498262e-01  -3.5585020e-01   3.1372069e-01   8.0878397e-01  -4.4064782e-01   6.8118104e-01  -5.4889419e-01   2.8119164e-01  -1.2514812e-01  -6.7336763e-01  -1.3430800e+00   8.0898366e-01  -1.4310167e-01   2.6638811e+00  -9.2065827e-03  -2.5911062e-01   1.1437436e+00   2.2025675e-01   2.8623303e-01   2.1829835e+00  -5.9794500e-01   7.4334771e-01  -6.5107753e-01  -6.3403505e-02   8.4288763e-01   4.2330017e-01  -4.9863773e-02   8.1927179e-01   1.0151813e+00  -2.3247033e-01  -5.9148328e-01  -6.0617981e-01  -1.2869715e-01   6.4590440e-02   4.5572508e-01  -6.9021767e-01   2.3158383e-01   3.4699263e-01  -7.8786546e-01   1.3345212e+00  -3.6887590e-02   2.8409449e-01  -1.9523703e-02   1.7046623e-01   9.0581714e-01   1.3995335e+00  -1.0158455e-02  -1.2956947e+00   7.3219055e-01  -3.1617585e-02  -8.2914138e-01  -2.6120235e-01  -1.0561413e+00  -1.1264104e+00   3.4974963e-01   3.0962493e-01   6.9088226e-01  -4.8564084e-01  -9.8673282e-02   1.5364051e-01  -4.9828618e-01   9.6063890e-03   6.4915953e-02   3.5848310e-01  -6.5328761e-01   4.8163205e-01  -9.3188570e-01  -4.4998175e-01  -6.5467728e-02   4.0680491e-01   9.3592693e-01   1.0319033e+00  -4.4134029e-01  -1.6015340e+00  -6.2636142e-02  -5.5394138e-01  -5.7187730e-01   1.3770795e+00   3.6869374e-01  -6.9102879e-01   1.5324016e+00   3.4365836e-01  -3.5293343e-01  -7.2803267e-01  -9.9034638e-01   1.2515816e+00  -2.0249189e-01   1.3932368e+00   1.1419209e+00  -1.5217124e+00  -1.8792929e-01   7.9776644e-01   1.8341752e+00   4.8847727e-02   4.4583937e-01  -4.4498766e-01  -1.5056699e+00  -3.5782095e-01   6.0507227e-01  -4.4869770e-01   2.9330487e-01  -1.0180210e+00   1.1919146e+00   2.7461867e-01  -1.5975313e-01  -6.5242981e-01   1.2618139e+00   1.0305537e+00   5.2847597e-01   4.4027446e-01  -5.1422368e-01  -1.7379080e+00   3.1581666e-01   1.0194117e+00   3.9473461e-01  -6.6059996e-01   5.2146569e-01  -1.7884204e-01   1.8609686e-01  -8.1948152e-01   1.7630617e+00   1.5014823e+00   1.9338481e+00   3.1813908e-01   1.5643834e+00  -8.8664647e-01  -1.5508429e-01   2.9086294e-01   9.9037485e-01   4.8057461e-01  -7.0212470e-02  -9.4675145e-01  -4.0345610e-01   1.6394731e-02  -1.5716174e-01  -2.6391813e-01  -1.1264194e+00  -1.3503846e+00   1.0650938e+00  -1.7926833e+00  -1.0267278e+00   3.8945716e-01   1.4533975e+00   7.3618874e-01  -8.3505095e-01  -1.9881330e-01   4.5061953e-01  -2.3293281e+00   9.3830962e-01   8.5721776e-01  -9.7814318e-01  -3.6282297e-01   7.0012407e-01   1.3682130e+00   4.1946004e-01  -7.5993621e-01   1.0649081e+00  -1.4186300e+00   1.1660884e+00   4.0075717e-01   4.6694567e-01   9.8282604e-02  -1.1750384e+00   3.7516595e-01  -9.7873828e-01  -2.2349848e-01  -1.7814821e+00   1.8801259e-01  -9.3227748e-01  -1.0270217e+00  -1.1720869e+00   5.2517139e-01   9.4942915e-02  -1.3131957e+00   4.3602360e-01  -8.9941080e-01  -1.4919900e+00  -1.6808011e-01   7.9359772e-01  -5.5567929e-01  -1.1947463e+00  -1.8492907e+00   3.5356224e-01   5.0600695e-01   1.2645766e+00   2.3344151e+00  -1.2385920e+00  -8.7158722e-01  -6.1196724e-02   2.1723725e+00   1.7060924e+00   3.7136230e-01  -1.0426705e+00   5.6419239e-01   1.9717655e-01  -6.8332692e-02   1.0989000e+00  -6.9466256e-01   9.0110544e-01  -3.5497116e-01   3.5990366e-01   3.8335080e-01  -1.5491488e-01   5.8896776e-01   1.1321315e+00   1.2033506e+00  -3.9622605e-01  -1.9038078e-01   1.0205980e+00  -3.1056362e-01   3.5205653e-01  -6.2966344e-01  -1.2672094e+00  -2.5524717e-01   5.3200864e-01   4.8497907e-01  -1.0198748e+00  -1.7921317e+00   5.1041500e-01   2.6787583e-01   8.2609888e-01   1.7235165e+00   9.1988672e-01  -3.2900897e-01  -4.5931526e-01   1.1567286e+00   1.7623224e+00   9.9342028e-01   5.6868737e-01   2.2155798e-01   2.6868022e+00  -3.5853488e-01  -1.0018703e+00   7.6784138e-01   5.5316872e-01  -8.9002782e-01   9.7786667e-01   4.2679508e-01   1.0543338e+00  -5.2100044e-01  -4.8625370e-03   2.2061292e+00   3.3655858e-01   1.0193627e+00   8.9836336e-01   4.3671669e-01  -1.0009418e+00  -9.7883394e-02  -8.2840443e-01   5.8653901e-01   1.0322956e+00  -8.0424136e-01   6.1994410e-01  -1.3978906e+00   3.3166408e-01   1.3357695e+00   8.6720989e-01  -9.4345294e-02   2.0595737e-01  -4.9593333e-01   8.6522784e-02  -6.8846984e-01  -4.2934595e-01  -2.5592534e-01   9.6860457e-02   1.2937474e+00   8.0072776e-01   1.2402073e+00   3.6917083e-01   4.0146055e-01   8.6454444e-01  -2.4746002e-01   6.3125043e-01  -7.5158419e-01  -8.8123275e-01  -8.9732201e-01   7.0574095e-01   5.7176021e-01   1.5391573e-01  -2.0136678e-01   8.5394564e-01  -1.2180019e-01  -7.1812541e-01   4.2929032e-01  -5.2147997e-01  -6.3686358e-01   9.3868481e-02  -1.0711215e+00   1.7692923e-01  -6.4799545e-01  -6.7274499e-01   3.7769219e-01  -4.6112949e-01   1.5583559e+00  -4.0587257e-02  -1.1940160e-01  -3.2889315e-01   5.7606765e-01   6.7795588e-01  -5.9313897e-01   1.0039869e-01   1.3153076e+00   5.4995230e-01   7.7503465e-01  -3.7905854e-01   1.1328822e+00   8.8494670e-01   1.0823408e+00   8.0440169e-01   9.4955878e-01  -2.0616966e+00   4.2347959e-02   6.0012581e-02   7.2664832e-01   3.0439196e-01  -8.8082672e-02  -9.6522024e-01  -9.1759043e-01   5.6367515e-01  -1.7701310e-01  -1.9252076e-02  -1.4346557e-01  -8.8220458e-01   5.1957907e-01  -8.6252426e-01  -4.2556072e-02  -7.2896626e-01   1.2138516e+00  -1.3977920e-01   3.5785083e-01   1.7250692e+00  -6.5746448e-01  -8.5024513e-01   1.0939648e+00   9.6216887e-01   2.2312858e-01   2.2275276e-02   5.3883732e-01   1.0932350e+00   7.8421681e-01   6.0505541e-01   8.7533813e-01   7.0862248e-01   1.8017256e+00   1.1247963e+00  -7.4546782e-01  -8.0945912e-01  -5.4019961e-01  -2.0554520e-01  -6.1232249e-01  -2.2626970e-01  -8.7127783e-01   3.3844698e-01  -1.4207716e+00   7.9762257e-01   3.6145894e-01   2.4367426e-01   4.6357871e-01   4.4967174e-01   7.8702140e-01   1.0229698e+00   5.4425530e-01   2.5016356e-01  -1.2753939e-01  -6.1031096e-02   9.0582378e-01  -1.8063582e-01  -9.2885029e-01   7.8205086e-01   6.6206497e-01   7.6882843e-01   9.5289165e-01  -5.6696397e-01   4.8223138e-01   5.6066519e-01   1.4707586e-01   8.4230943e-01  -5.8728995e-01   5.6750937e-01   4.3880391e-01   2.0112176e-02  -2.5687859e+00  -5.5360473e-01   7.6151175e-01  -4.5386713e-01  -1.1634745e+00  -3.2585099e-01  -1.2976983e+00  -6.5371866e-01  -2.4807616e-01   1.1396148e+00  -3.2411981e-01  -3.1567511e-01  -3.1670762e-01   1.7108266e-01   6.7087504e-01  -3.0990550e-01   5.0247869e-01  -4.5389053e-01  -3.2336048e-01   2.0811554e+00   1.6319853e+00   2.2162901e+00  -9.5576897e-01  -3.3220158e-01   5.5913662e-01   1.2990772e+00   8.5225207e-01   1.3810777e+00   2.3703292e-01   1.3857550e+00  -2.7257267e-01   4.3495670e-01  -2.1241984e-01   5.6373766e-01  -7.5978586e-01   4.4131258e-01  -1.1807235e+00  -5.8813807e-01  -1.2700319e+00   3.6048262e-01  -9.2815855e-01   8.7973378e-01  -5.4061718e-02  -1.0428059e+00  -7.2001649e-01  -5.4316864e-01   6.9401935e-02  -5.9413696e-01  -9.3016295e-01  -2.9347457e-01   6.4195935e-01  -1.4375307e+00  -3.1430936e-03  -2.3987368e-01  -7.3950896e-02  -3.1206884e-01   5.2644251e-01   6.7536238e-01  -4.1963474e-01   9.0475225e-01   1.9620473e+00   1.4339696e+00   1.9165526e-02   6.0339353e-01   1.1542076e+00   7.5050562e-01   7.4331398e-01  -5.9229304e-01  -9.2032987e-02   1.3091003e+00  -3.2830715e-01  -4.7390981e-01   8.9083360e-01   4.4416309e-01   1.3747371e+00   1.7763023e+00  -9.1454269e-01   1.1783427e+00   2.7489277e-01   2.3235739e-02   2.6591887e-02   7.5231024e-01   4.7260929e-01  -2.7003152e+00   5.8593134e-01  -1.6005629e+00  -6.4735955e-01  -8.4763524e-01  -1.3693645e+00  -1.0705121e+00   2.7718654e-01   1.0461619e+00   1.4338456e+00   6.4205690e-01   1.7318034e-01  -1.0514706e+00  -9.4038315e-01   5.2665992e-01   8.2820434e-01   3.0528894e-01   5.7321921e-01   6.3772788e-01   1.4235883e+00  -1.4876698e+00   8.7073999e-01   9.8152387e-01   5.7858289e-02  -3.8723744e-01  -8.2115231e-01   2.7982904e-01  -1.7866808e-01   5.1005496e-01   7.2169876e-02   9.7820842e-01   1.3823046e+00   2.1020915e+00   3.0034985e-01  -4.8013931e-02  -1.4036386e+00  -3.5026615e-01   7.7811975e-01  -2.1004586e-01  -1.0737326e+00  -1.7955381e+00  -1.4126805e+00  -1.7786496e+00   4.6873883e-01   1.8168391e+00   7.2769902e-01  -3.3502135e-01   7.2476673e-01  -6.2348952e-01  -3.6924907e-01   5.7043107e-01   8.7202917e-01   5.7930743e-01  -1.8998230e-01   1.7277740e+00   2.9047610e-01   2.6423582e-01   1.2948259e+00  -3.0219440e-01   8.7300205e-01  -4.6106990e-01  -4.4326087e-01   7.8422205e-02   8.3021714e-02  -9.4721312e-01  -1.5311554e+00   1.0987234e+00   1.3967917e+00   1.4533043e+00  -4.6621563e-01  -9.4760547e-01  -8.2771032e-01  -1.1851729e+00   9.5599978e-01  -4.8315315e-01  -1.3028852e+00  -2.9695459e-01  -1.3537631e+00  -4.0127222e-01  -1.8452533e-01  -1.5672585e-01   1.2223509e-02  -3.5096925e-02   1.9998500e-01  -1.2203119e+00   1.3059029e-01   6.4565824e-01  -9.8192677e-02   7.5551410e-01   3.2931669e-01  -4.1357282e-01  -2.4859268e-01   8.5594621e-01   1.1202565e+00   1.7493201e+00   3.5196417e-01   7.4645993e-01  -4.1351130e-01  -4.2564421e-01   7.9941148e-01  -6.5372739e-01   4.2803094e-01   7.4110379e-01  -1.0588927e-01   8.7628982e-02  -1.5473932e+00   3.3131272e-02   1.5181205e-01   5.1291786e-01  -1.3762565e-01  -1.0658545e+00  -2.2810561e-02  -6.1434717e-01   1.1038042e+00   5.4714321e-01  -8.3058141e-01   1.0261261e+00   5.2805347e-01  -2.4013168e-01   2.4625011e-01  -6.8678917e-01   7.5178982e-01   3.0710668e-01   5.6369558e-01   5.4745537e-01  -5.5060435e-01  -1.2591128e-01  -7.2163235e-01   7.1788152e-01   7.4107097e-01   1.3827424e-01   9.4151230e-01  -4.1348737e-02  -7.1467832e-01  -7.3023761e-01  -1.6045950e-02   7.7435195e-01   1.5193387e-01  -2.3356057e-01   1.5247426e-01  -1.4972061e+00  -6.2934460e-01   3.5785440e-02   6.6278331e-01  -6.1526410e-01  -3.1900359e-01  -1.9837287e+00   4.4844526e-01   2.1987307e-01   9.4526976e-01  -2.5350685e-01  -2.4026432e-01   5.1398930e-01  -2.1455972e-01   2.4081978e-01   3.9525885e-01   1.5589539e-01  -1.3921833e+00   2.8780701e-01   3.4719894e-01   4.0743886e-04   2.8232139e-01  -2.0015890e-01   1.3090741e-01  -1.9509618e-01  -1.9088134e-01   7.8374567e-01   7.8040761e-01   5.1986012e-01  -1.7893194e-01   2.9662588e-01   4.1553156e-01  -5.0994515e-01   1.3545787e-01  -9.7273231e-02   6.4927913e-01  -8.2293560e-01   2.9020909e-01   9.2730082e-01   1.9781320e-01   1.2273845e-01   8.0061111e-01  -1.3188527e+00   6.5223840e-01   2.5654246e-01   5.0749193e-01   2.7025881e-01   5.0844011e-01   2.8117598e-01   9.2004768e-01   1.1550839e+00   1.3754587e-01  -9.1669528e-01  -1.1380800e-01  -5.1890145e-01   8.7822865e-02   1.2288038e+00   1.3534081e-01  -1.2406212e+00  -1.3459046e+00  -4.4186637e-01   8.3016703e-01   1.2875084e+00   7.0545698e-01  -1.1062323e+00  -6.7759588e-01   3.2909950e-01  -1.1950474e-01   7.9368288e-01   1.7150784e-01   1.2098410e+00   4.1747601e-01  -1.3347555e-01   1.2438244e-01  -7.2898156e-02   1.2319464e-01   5.3509122e-01   7.3797666e-01  -1.4760037e+00  -5.7805175e-01  -8.6360049e-01   2.0723664e-01   4.9833194e-01  -9.3493831e-01  -3.9673343e-01   1.4733921e+00  -1.6917734e-01   2.0333675e+00  -6.5825627e-01  -6.0249721e-01  -4.0420645e-01   1.0171447e+00   4.3418172e-01   4.8901041e-01  -9.0946972e-01   3.0616680e-01  -2.0078628e+00   1.4240526e+00   9.0280594e-01   6.1786399e-01   7.1675139e-01   5.4095342e-02   7.8794477e-01  -2.8459480e-01   9.3083201e-01  -1.1598990e-01   9.3231456e-01   6.1458995e-01   1.5763700e+00   1.4418111e-02   4.9046539e-01  -1.2289331e+00   6.7585812e-01   6.4177062e-01  -7.9544928e-01  -6.7635576e-01   9.7284156e-02  -4.9680994e-01  -7.0030154e-01  -3.9821778e-01   1.8502150e+00   1.2367311e+00   3.7505354e-01   1.7359081e+00  -1.1979507e+00  -1.3645838e+00  -8.5816025e-01   1.6555873e-01   2.0144532e+00   6.8243064e-01  -8.3784967e-01  -7.6853109e-01  -2.3347268e-02   1.5749898e+00   7.4183349e-01   1.5485526e-02   7.3812738e-01   8.1200342e-01   6.6269905e-01   1.0502046e+00   3.8330213e-02   7.1108874e-02   1.3413003e+00   1.7025819e+00   5.3234388e-01  -5.5969947e-01  -4.4871716e-01  -5.8543355e-01  -6.2863524e-01   8.4665244e-02  -1.0163241e+00  -7.0912467e-01  -1.3331237e+00  -5.5643024e-01  -4.5880088e-01   8.5308181e-01   1.7903516e+00   2.8305795e-01   1.2634289e+00   2.2555028e+00   4.1486585e-01  -3.6215422e-01  -6.1067050e-01   5.0916903e-01  -3.0223214e-01   6.6101066e-01   1.9779100e+00  -7.1175504e-01   1.3875051e+00   1.6104755e-01   9.3731243e-01   6.9738631e-01   1.2258460e+00   3.6465727e-01  -1.2123183e-01   8.5489856e-01   9.9360452e-01  -4.2739398e-01   3.9623332e-01   1.2622526e+00   1.0175247e+00   8.4222552e-01  -1.6907167e+00  -2.7968754e-01  -7.8270091e-02  -4.3249889e-01  -1.6938729e+00  -6.0715801e-01   8.6031779e-01  -1.0491182e+00  -2.1046070e+00  -5.5434937e+00   3.3674680e+00
